solver_type L2R_L2LOSS_SVC_DUAL
nr_class 5
label 1 2 3 4 5
nr_feature 47
bias -1
w
0.386683810269650	-0.407263649674732	3.20094856053896	-5.09900262637806	-2.08081794541094
-0.517812492149671	-2.63841448312650	1.07657139675069	0.906690961757057	2.90463946167998
0.813376987172278	1.36060684200974	-1.28822810044434	-1.00164552131631	-2.58082234363488
-0.306550064921214	-1.84715646480845	-1.22650665215872	-0.428619546812758	1.80199174646731
-0.350109136591777	1.09939460604040	0.454041057372997	-0.782920815938173	-1.16732012497528
-1.07907755297504	0.149942185419435	-1.59907754715529	-0.145239264419714	2.87386627404379
1.03387026024702	-2.29574078543652	1.12692439128237	0.0648665098842214	-0.233054874215415
-0.872108796682897	3.13369131935058	-2.25419056702978	-1.59567365121411	0.634789179957325
0.694725458810418	-3.36409606515722	2.33178173926164	1.92840526124052	0.129805607393051
1.70760819301515	4.90767638266096	-4.61642070704634	-3.03222035339904	-4.58044284437204
2.08859216796400	-7.47126083749330	7.55791294090427	3.32253151545247	-1.46040567163179
1.35847476535360	12.9705800261370	-8.54991016282788	-6.42771534619490	-11.1790202524707
-7.48946752969863	-8.20193156278795	9.61761401411288	12.8177962131930	2.84993295527481
-0.729494156514074	0.678097433323098	-0.0242663730833459	-0.121183634060060	-0.0853517406406298
-0.296817437650128	0.0729710869295005	-0.378624826836214	0.414113622056218	0.202591788883598
-0.188248399427598	0.201139493235082	-0.181879641387866	-0.117699027460668	0.182129517486435
0.0856460726894695	-0.111525511375071	-0.234195604992317	0.0464578970396517	0.179978529417640
-0.0712057764423442	0.119703074221967	-0.0342396663881217	0.110624536360500	-0.0470762943369246
0.00997627984686321	-0.0506147141351001	-0.0349909282466039	-0.170795861415869	0.123903341099241
-0.0459035937692568	-0.0205129090429298	0.0610759690181929	-0.0134298548497497	0.0500996539049264
-0.0801805074446944	0.0231504331563405	0.0364475774160711	0.0300759077372023	0.132726994874896
-0.109319956874605	0.166103147175833	0.165980358426632	0.000598077107577092	-0.114508572011564
-0.217103319887428	0.188688732623068	-0.00892119183380279	0.504588862958264	-0.172218591152972
-0.338557888467659	0.361182254796628	0.0778856213188040	0.0420682661261550	0.0794284724269207
-0.760443848071972	0.177099453173498	-0.145078074605652	-0.125958143531361	0.540081409198875
-9.76747629837887	6.25665568880359	-2.25532999662798	5.64046041468786	3.44936982220058
0.630376014230766	-0.649189186797698	1.14710040150135	-2.75524491816410	-0.407192690165076
-0.531793019792606	-0.940240580236014	0.618373830061088	0.161135490585550	1.57404661457254
-0.224760215058414	0.713480215224614	-0.267251500746503	0.212671273892313	-0.829573179424090
-0.169339613715233	-0.526640266081401	0.482457577496560	-0.272303358304670	0.459070183098632
-0.218567125589995	0.439288098916938	0.139044264656220	-0.146150530856896	-0.243918842689401
-0.437908800925202	0.121389902554336	-0.343805005542013	-0.0653732105838508	1.04915447937369
0.567039993802570	-1.00769666386906	0.191277565502652	0.297350159540578	-0.155714789431474
-0.447772875830080	1.47459628318661	-1.06518580626552	-0.543991830124020	0.235538022113604
0.341425574998159	-1.42537901899704	0.887950189294397	0.754112955295524	0.0818688425021984
0.674283341437543	2.44504304292147	-1.94818725050080	-1.44270803469381	-2.13393266812217
1.09390037223112	-3.15354280461059	2.58937373492932	1.55663385731621	-0.590171854785292
0.391192815289275	5.73024312410005	-3.67584191537721	-3.36945696714730	-4.72851913674933
-8.58102306065794	0.580347321684143	2.37674951012342	7.44965707656780	1.76732173375801
-4.35312766840168	-7.44274942011438	12.6001216126041	-16.6008414201613	0.893632678589002
-11.6280958619260	11.4847020129270	-1.99328775873303	6.90711688587328	2.27656992159051
0.0860218618844838	2.38628926435557	0.870426479347106	-6.96042863916852	-2.55834864630579
-2.45985088720039	-0.0301349824968525	0.733331994106110	0.276021907508527	-1.39824417470925
41.2059520202382	-18.4447940214511	-25.0272240385578	6.09707790570019	16.2333089951093
-3.65866897760320	0.0614931917179367	3.08209817194795	-4.50122274572974	1.49948860962973
-1.35440476359540	0.125256985611655	-0.332347981015321	0.823562590964869	0.858472506200680
-1.33933773823737	-1.34972551211273	0.269413885278122	-2.90320593874656	1.71207017030537